7  15  16

1.0e-6

1
0
0
0
0
0
0
0
0
0
0
0
0
0
0
0

0
1
0
0
0
0
0
0
0
0
0
0
0
0
0
0

0
0
1
0
0
0
0
0
0
0
0
0
0
0
0
0

0
0
0
1
0
0
0
0
0
0
0
0
0
0
0
0

0
0
0
0
1
0
0
0
0
0
0
0
0
0
0
0

0
0
0
0
0
1
0
0
0
0
0
0
0
0
0
0

0
0
0
0
0
0
1
0
0
0
0
0
0
0
0
0

0
0
0
0
0
0
0
1
0
0
0
0
0
0
0
0

0
0
0
0
0
0
0
0
1
0
0
0
0
0
0
0

0
0
0
0
0
0
0
0
0
1
0
0
0
0
0
0

0
0
0
0
0
0
0
0
0
0
1
0
0
0
0
0

0
0
0
0
0
0
0
0
0
0
0
1
0
0
0
0

0
0
0
0
0
0
0
0
0
0
0
0
1
0
0
0

0
0
0
0
0
0
0
0
0
0
0
0
0
1
0
0

0
0
0
0
0
0
0
0
0
0
0
0
0
0
1
0

3.16e-7

1.805984
0.024863
-0.006608
0.025143
-0.018917
0.022293
-0.012442
0.004483
-0.006668
0.003411
0.000060
-0.004492
0.011396
-0.019579
0.017996
0.001460

-0.072384
1.192709
0.064243
0.023544
-0.037303
0.060863
-0.017550
0.019245
0.001531
-0.014774
0.003926
-0.000791
0.000937
0.073187
-0.084846
0.032113

-0.111892
0.032721
1.108213
0.034392
-0.032274
0.077766
-0.021492
0.031073
-0.006855
-0.012294
-0.015155
0.019149
-0.036623
0.160182
-0.151282
0.082636

-0.182105
0.031717
0.059848
1.064774
-0.040776
0.087968
-0.025911
0.037396
-0.011832
-0.006573
-0.021032
0.025535
-0.047217
0.192188
-0.173739
0.095913

-0.190950
0.023899
0.059609
0.034492
0.989479
0.082161
-0.021352
0.040225
-0.017820
-0.003963
-0.020290
0.033053
-0.052268
0.197418
-0.174928
0.093161

-0.171033
0.012701
0.059802
0.025628
-0.022632
1.098054
-0.015493
0.041319
-0.023335
0.000805
-0.024420
0.042758
-0.057781
0.206366
-0.179046
0.089352

-0.142250
0.007891
0.057117
0.008636
-0.001111
0.043704
1.039519
0.032891
-0.021399
0.004735
-0.026668
0.050244
-0.057970
0.199358
-0.167194
0.081805

-0.140936
0.006986
0.047266
0.001663
0.008045
0.033616
0.015983
1.074583
-0.029210
0.015040
-0.035826
0.065520
-0.065753
0.195792
-0.157961
0.071225

-0.119138
-0.000709
0.043450
-0.009035
0.018269
0.015047
0.023704
0.040655
1.009736
0.024728
-0.049249
0.081872
-0.069317
0.209610
-0.171032
0.059123

-0.093052
-0.004119
0.033553
-0.010103
0.014606
0.017222
0.006514
0.045493
-0.010218
1.048752
-0.041108
0.083761
-0.073726
0.239553
-0.196206
0.062450

-0.093022
0.006503
0.025002
-0.005669
0.001449
0.025959
-0.004576
0.030814
0.022270
-0.009684
0.994716
0.098855
-0.097582
0.299828
-0.246817
0.075205

-0.067855
0.010722
0.024805
-0.002960
-0.018989
0.031185
-0.010212
0.033546
0.020453
0.008391
-0.073442
1.148194
-0.104231
0.366529
-0.310267
0.079909

-0.050094
0.007064
0.028180
0.006874
-0.044515
0.040517
-0.013061
0.038767
0.012787
0.017849
-0.074473
0.092485
0.933345
0.434797
-0.370432
0.072390

-0.034174
-0.002418
0.027409
0.015279
-0.055106
0.045665
-0.018587
0.048978
0.001671
0.032761
-0.087117
0.101022
-0.144360
1.557195
-0.410698
0.055364

-0.027973
-0.007610
0.020530
0.011899
-0.048963
0.039810
-0.015806
0.045308
0.001083
0.034356
-0.077343
0.091640
-0.145528
0.462519
0.764122
0.028279


1.0e-7

3.573969
0.082026
-0.017727
0.059751
-0.048812
0.052434
-0.030093
0.016847
-0.018772
0.008781
0.000175
-0.007143
0.024539
-0.042550
0.036250
0.003293

0.167590
1.535943
0.141683
0.060177
-0.065989
0.105219
-0.014614
0.022769
0.022664
-0.038540
0.013182
-0.011927
0.014311
0.163237
-0.202893
0.076487

-0.061329
0.082558
1.284604
0.048607
-0.012046
0.114447
-0.001833
0.055070
0.013434
-0.054340
0.000631
0.008231
-0.040118
0.291362
-0.302448
0.179463

-0.411466
0.090690
0.151680
1.129457
-0.050049
0.165142
-0.019276
0.074908
-0.003687
-0.033700
-0.012789
0.016359
-0.064827
0.378781
-0.371012
0.207930

-0.505078
0.069182
0.153209
0.053697
1.020941
0.155606
-0.006137
0.078133
-0.020617
-0.017928
-0.018820
0.039654
-0.076775
0.379949
-0.364674
0.201626

-0.454434
0.039231
0.149454
0.035461
-0.002958
1.191745
0.006054
0.080953
-0.034347
-0.003228
-0.024770
0.055879
-0.079054
0.370597
-0.351305
0.191144

-0.373702
0.028166
0.140667
0.000411
0.039351
0.081486
1.124730
0.062317
-0.029546
0.003955
-0.025784
0.071149
-0.076546
0.344692
-0.318731
0.173555

-0.372493
0.022674
0.118140
-0.010034
0.049108
0.065491
0.067856
1.161198
-0.045122
0.023140
-0.040785
0.102244
-0.093393
0.336217
-0.296731
0.150757

-0.294638
0.001494
0.105605
-0.029218
0.065112
0.036315
0.068423
0.094389
1.040764
0.048247
-0.066118
0.134370
-0.091997
0.337084
-0.300813
0.127128

-0.239308
-0.003988
0.078024
-0.025783
0.047712
0.048855
0.020546
0.108919
-0.002093
1.102096
-0.045855
0.140458
-0.092079
0.379422
-0.336510
0.132573

-0.288885
0.031396
0.058038
-0.007742
0.009811
0.066539
-0.003279
0.078084
0.063914
-0.020979
1.026591
0.175674
-0.140511
0.513461
-0.454600
0.156239

-0.181395
0.048900
0.052646
0.002960
-0.033888
0.071229
-0.010912
0.082946
0.058283
0.019226
-0.127137
1.279808
-0.133378
0.635463
-0.588222
0.166325

-0.181604
0.043514
0.060160
0.028649
-0.092708
0.090647
-0.014754
0.091507
0.042978
0.032002
-0.121562
0.141160
0.969373
0.777690
-0.725397
0.151031

-0.155049
0.016513
0.059600
0.048163
-0.120891
0.103582
-0.033168
0.118476
0.012074
0.069560
-0.161758
0.176083
-0.239861
2.125728
-0.866749
0.115077

-0.119497
-0.001883
0.043379
0.035862
-0.111534
0.100514
-0.040576
0.105843
-0.004777
0.089195
-0.170569
0.196915
-0.300726
1.021081
0.473103
0.061045


3.16e-8

7.574025
0.200941
-0.032900
0.103947
-0.084732
0.086227
-0.050055
0.033396
-0.030941
0.014639
-0.000500
-0.007460
0.033078
-0.049528
0.037552
0.003742

1.759631
2.253666
0.236130
0.110666
-0.070053
0.125102
0.015555
0.001668
0.075594
-0.065601
0.021662
-0.023700
0.023708
0.295903
-0.391163
0.128651

0.745450
0.202293
1.595607
0.025900
0.108190
0.062719
0.102727
0.048561
0.080378
-0.117706
0.036440
0.006274
-0.061663
0.436199
-0.472083
0.280424

-0.431842
0.234278
0.301670
1.201405
0.012249
0.197328
0.063181
0.092738
0.051672
-0.080450
0.022304
-0.004684
-0.087682
0.606409
-0.626628
0.324939

-0.858511
0.179552
0.311068
0.041464
1.153658
0.183377
0.097487
0.086701
0.022514
-0.040659
0.004565
0.040129
-0.103988
0.587088
-0.595984
0.315594

-0.762640
0.108682
0.293647
0.017642
0.102067
1.261300
0.110111
0.096669
-0.002011
-0.015389
0.011590
0.052082
-0.091605
0.522900
-0.528739
0.297295

-0.618878
0.084029
0.273494
-0.034907
0.158168
0.086674
1.314443
0.065519
0.006829
-0.005473
0.016530
0.072400
-0.080178
0.459165
-0.461817
0.268667

-0.614083
0.064460
0.228124
-0.032890
0.143863
0.074998
0.197765
1.254870
-0.009389
0.016422
0.001600
0.118182
-0.107788
0.444656
-0.424313
0.233589

-0.426519
0.027351
0.200325
-0.058310
0.156578
0.048628
0.162617
0.150804
1.143604
0.072333
-0.037152
0.166720
-0.094559
0.410926
-0.401729
0.199746

-0.410092
0.029980
0.146097
-0.049452
0.111377
0.089476
0.060482
0.184093
0.049558
1.183933
0.002907
0.184206
-0.084598
0.453209
-0.431381
0.205266

-0.603044
0.108702
0.114035
-0.010015
0.033290
0.120147
0.022562
0.135783
0.134522
-0.010791
1.115192
0.260176
-0.174949
0.701382
-0.652997
0.236355

-0.236909
0.156016
0.094259
0.016250
-0.033427
0.115020
0.023291
0.139040
0.121396
0.047752
-0.146160
1.423608
-0.107086
0.831391
-0.838500
0.250259

-0.454124
0.147245
0.107298
0.056314
-0.116742
0.133189
0.027936
0.140004
0.103087
0.048374
-0.116794
0.143630
1.123806
1.033989
-1.057116
0.228174

-0.509740
0.079875
0.114390
0.085720
-0.172348
0.164444
-0.018557
0.192335
0.043997
0.111101
-0.198308
0.222683
-0.292082
2.754814
-1.398463
0.174163

-0.470907
0.037407
0.081960
0.067474
-0.176383
0.179754
-0.062212
0.176808
-0.002812
0.156047
-0.254976
0.303701
-0.442444
1.677691
0.132772
0.095841


1.0e-8

17.466852
0.450600
-0.051105
0.159171
-0.119916
0.120130
-0.071639
0.057358
-0.045655
0.026384
-0.005131
-0.006681
0.033656
-0.028429
0.007551
0.003655

7.559634
3.929973
0.366485
0.175125
-0.029070
0.123626
0.068667
-0.031375
0.154489
-0.082063
0.036933
-0.036094
0.018466
0.472561
-0.656713
0.179944

3.994317
0.526023
2.171722
-0.033467
0.367524
-0.088092
0.308599
0.014454
0.180601
-0.149749
0.052040
0.089031
-0.177835
0.655764
-0.680686
0.375328

0.766284
0.610058
0.563430
1.313658
0.203217
0.177821
0.242425
0.098472
0.154545
-0.111491
0.065678
0.013805
-0.150520
0.887384
-0.931979
0.436143

-0.753832
0.467632
0.591137
-0.000754
1.464116
0.166922
0.321801
0.062257
0.126481
-0.042913
0.028666
0.092083
-0.171319
0.848034
-0.878940
0.425429

-0.552271
0.292538
0.537233
-0.026945
0.339685
1.336805
0.330182
0.090577
0.086828
-0.005033
0.071689
0.088127
-0.141351
0.688660
-0.692309
0.400207

-0.460571
0.241202
0.499843
-0.105257
0.394290
0.068084
1.674598
0.048972
0.101958
-0.001248
0.102609
0.093526
-0.097298
0.537971
-0.554342
0.361280

-0.521833
0.184784
0.406992
-0.061125
0.318433
0.061751
0.454995
1.385944
0.114298
0.009403
0.094295
0.150079
-0.141276
0.523818
-0.510355
0.314438

-0.381120
0.135891
0.359057
-0.096083
0.318744
0.051960
0.334887
0.227874
1.379111
0.132782
0.031998
0.218095
-0.105073
0.433936
-0.449098
0.271424

-0.776504
0.192087
0.267352
-0.078875
0.218147
0.151660
0.145725
0.276477
0.176805
1.355110
0.120726
0.255606
-0.078238
0.481651
-0.473419
0.274890

-1.084516
0.344592
0.221457
-0.016647
0.090505
0.196155
0.091041
0.213329
0.224092
0.087010
1.272718
0.438831
-0.270784
0.952149
-0.892982
0.310057

0.069842
0.448249
0.181547
0.019336
0.009805
0.186226
0.097095
0.210163
0.194721
0.133586
-0.109197
1.646441
-0.036829
0.967527
-1.030699
0.325585

-1.159093
0.412884
0.207197
0.061464
-0.076583
0.197976
0.108239
0.192460
0.166596
0.103929
-0.040671
0.130031
1.428679
1.186663
-1.280525
0.298019

-1.702175
0.265511
0.235122
0.097724
-0.175430
0.268532
0.006390
0.284371
0.064951
0.196813
-0.182197
0.272949
-0.292641
3.462540
-1.957109
0.228966

-1.832070
0.189605
0.167287
0.087686
-0.222089
0.300971
-0.086063
0.265923
0.001329
0.246622
-0.301620
0.413580
-0.519173
2.376736
-0.136227
0.130034


3.16e-9

45.482391
1.047244
-0.072695
0.231793
-0.149413
0.153225
-0.092864
0.096056
-0.070316
0.054220
-0.015670
-0.007250
0.030443
0.023405
-0.067236
0.004805

26.929235
8.318893
0.587525
0.264427
0.062174
0.140540
0.125816
-0.036670
0.237973
-0.058849
0.065415
-0.039838
0.011744
0.652742
-0.916562
0.224589

15.353506
1.604403
3.311072
-0.095663
0.760888
-0.249980
0.579842
0.018245
0.283129
-0.077304
0.003544
0.338852
-0.375854
0.880549
-0.808569
0.458249

7.579679
1.733697
1.091930
1.538430
0.587320
0.175932
0.521381
0.154851
0.283744
-0.055443
0.083557
0.166732
-0.230171
1.097202
-1.075656
0.535195

2.127521
1.346181
1.138647
-0.052615
2.054500
0.212214
0.668255
0.065974
0.301140
0.028337
0.025632
0.295320
-0.262874
1.079212
-1.067456
0.525314

2.810566
0.866910
0.993127
-0.090840
0.764412
1.562020
0.707354
0.118784
0.243336
0.103978
0.117733
0.272093
-0.246260
0.843690
-0.720274
0.494387

2.319391
0.767789
0.929404
-0.217497
0.782799
0.111407
2.320674
0.083913
0.266071
0.085453
0.216365
0.216159
-0.144406
0.567452
-0.498790
0.447089

1.770755
0.614852
0.737725
-0.094829
0.605820
0.081866
0.906315
1.692985
0.381938
0.048724
0.236759
0.248127
-0.185825
0.539614
-0.458151
0.389683

0.970943
0.520490
0.667718
-0.151430
0.588888
0.094204
0.632758
0.399342
1.891794
0.296703
0.147713
0.333079
-0.098791
0.318117
-0.274988
0.339257

-1.563230
0.803563
0.513493
-0.105508
0.385304
0.283845
0.323272
0.426012
0.453972
1.747780
0.361835
0.385645
-0.001063
0.322615
-0.240783
0.338862

-1.281515
1.125588
0.454293
-0.040836
0.216270
0.332721
0.241402
0.358009
0.331036
0.383679
1.573609
0.816278
-0.400469
1.231988
-1.094592
0.374985

2.166719
1.323081
0.409925
-0.027447
0.138795
0.349322
0.216098
0.341158
0.264676
0.348910
0.028350
2.062878
0.156631
0.976143
-0.980148
0.389818

-3.088098
1.106992
0.477758
0.000957
0.064844
0.368898
0.202733
0.304323
0.196032
0.268272
0.131492
0.164166
2.023764
1.130623
-1.041414
0.357541

-5.357588
0.879173
0.531044
0.040898
-0.089945
0.468136
0.047303
0.429167
0.046906
0.390678
-0.101621
0.395937
-0.129931
4.167996
-2.180925
0.277509

-6.261940
0.797331
0.375084
0.058478
-0.212256
0.490046
-0.094254
0.387433
0.002309
0.402968
-0.290684
0.561204
-0.407142
2.997066
0.096601
0.161843


1e-9

131.777661
2.721963
-0.101754
0.349240
-0.180854
0.199811
-0.113131
0.163243
-0.117411
0.117535
-0.038644
-0.003502
0.037327
0.096644
-0.199134
0.007122

92.195546
21.217497
1.035791
0.430782
0.197100
0.265099
0.175118
0.033540
0.353713
0.042848
0.097067
0.027051
0.004628
0.870537
-1.066484
0.259271

55.882755
5.745266
5.854637
-0.107993
1.331753
-0.273967
0.909688
0.154948
0.462821
0.124433
-0.092081
0.854781
-0.552087
0.874535
-0.357063
0.524393

39.679746
5.512523
2.419612
2.013147
1.322273
0.361753
0.950555
0.395467
0.489184
0.190908
0.035674
0.681614
-0.332424
1.091648
-0.521462
0.617098

19.783246
4.334057
2.399085
-0.092295
3.197686
0.593887
1.147848
0.273691
0.634027
0.265450
-0.025599
0.868892
-0.392927
1.180036
-0.696279
0.610077

21.913681
2.943038
2.031729
-0.195392
1.540357
2.304033
1.380414
0.302555
0.609300
0.405939
0.175026
0.763402
-0.416493
0.982774
-0.325767
0.574046

18.728257
2.755902
1.892120
-0.385669
1.415295
0.450892
3.557027
0.354356
0.613301
0.371747
0.389518
0.572892
-0.261547
0.631509
-0.207547
0.520601

16.203173
2.342771
1.480094
-0.146794
1.094893
0.303278
1.701588
2.583466
0.985229
0.213941
0.484955
0.486327
-0.200735
0.460050
-0.086924
0.454922

10.840779
1.964703
1.378504
-0.242329
1.051010
0.333642
1.164739
0.872256
3.132972
0.681172
0.392504
0.566460
-0.000299
-0.081851
0.510157
0.399031

-0.541958
3.065750
1.077079
-0.120313
0.677423
0.628918
0.692208
0.774033
1.117018
2.677744
0.905699
0.607967
0.323190
-0.301130
0.876926
0.394202

3.651681
3.943272
1.029812
-0.109681
0.477680
0.676627
0.546188
0.708786
0.531654
1.102350
2.282597
1.552139
-0.407880
1.420413
-0.928517
0.428968

12.892651
4.289229
1.030699
-0.161996
0.413101
0.763869
0.414652
0.665400
0.369763
0.875592
0.348195
2.953947
0.684723
0.865780
-0.423071
0.441137

-7.185401
3.175499
1.232347
-0.164067
0.351398
0.817680
0.310276
0.617429
0.189543
0.713708
0.434088
0.391318
3.257535
0.944983
0.169434
0.404885

-14.675299
3.183133
1.285534
-0.129263
0.127988
0.876987
0.153811
0.728099
0.007467
0.851319
0.026114
0.758379
0.362764
5.245757
-1.672536
0.316949

-19.078328
3.249777
0.901831
-0.063307
-0.108615
0.816317
-0.033416
0.597895
0.038770
0.733617
-0.219318
0.845530
0.069526
3.750424
1.513490
0.188215

